digraph Tree {
node [shape=box, style="filled, rounded", color="black", fontname=helvetica] ;
edge [fontname=helvetica] ;
0 [label=<Customers &le; 90.0<br/>gini = 0.973<br/>samples = 4500<br/>value = [731, 1, 1 ... 1, 1, 1]>, fillcolor="#fbebdf"] ;
1 [label=<gini = 0.0<br/>samples = 731<br/>value = [731, 0, 0 ... 0, 0, 0]>, fillcolor="#e58139"] ;
0 -> 1 [labeldistance=2.5, labelangle=45, headlabel="True"] ;
2 [label=<Customers &le; 642.5<br/>gini = 1.0<br/>samples = 3769<br/>value = [0, 1, 1 ... 1, 1, 1]>, fillcolor="#ffffff"] ;
0 -> 2 [labeldistance=2.5, labelangle=-45, headlabel="False"] ;
3 [label=<gini = 0.999<br/>samples = 1781<br/>value = [0, 1, 1 ... 0, 0, 0]>, fillcolor="#ffffff"] ;
2 -> 3 ;
4 [label=<gini = 0.999<br/>samples = 1988<br/>value = [0, 0, 0 ... 1, 1, 1]>, fillcolor="#ffffff"] ;
2 -> 4 ;
}